<?xml version="1.0"?>
<opencv_storage>
<cascade>
  <stageType>BOOST</stageType>
  <featureType>HAAR</featureType>
  <height>20</height>
  <width>20</width>
  <stageParams>
    <boostType>GAB</boostType>
    <minHitRate>9.9500000476837158e-01</minHitRate>
    <maxFalseAlarm>5.0000000000000000e-01</maxFalseAlarm>
    <weightTrimRate>9.4999999999999996e-01</weightTrimRate>
    <maxDepth>1</maxDepth>
    <maxWeakCount>100</maxWeakCount></stageParams>
  <featureParams>
    <maxCatCount>0</maxCatCount>
    <featSize>1</featSize>
    <mode>BASIC</mode></featureParams>
  <stageNum>10</stageNum>
  <stages>
    <!-- stage 0 -->
    <_>
      <maxWeakCount>44</maxWeakCount>
      <stageThreshold>-1.1088635921478271e+00</stageThreshold>
      <weakClassifiers>
        <_>
          <internalNodes>
            0 -1 368 2.1779824048280716e-02</internalNodes>
          <leafValues>
            -2.2076612710952759e-01 4.3110236525535583e-01</leafValues></_>
        <_>
          <internalNodes>
            0 -1 259 -2.7559176087379456e-02</internalNodes>
          <leafValues>
            5.0533318519592285e-01 -1.0528402775526047e-01</leafValues></_>
        <_>
          <internalNodes>
            0 -1 323 1.7707569524645805e-02</internalNodes>
          <leafValues>
            -1.7256160080432892e-01 3.3540737628936768e-01</leafValues></_>
        <_>
          <internalNodes>
            0 -1 440 8.2210116088390350e-03</internalNodes>
          <leafValues>
            -1.2969855964183807e-01 3.4897652268409729e-01</leafValues></_>
        <_>
          <internalNodes>
            0 -1 244 6.8900762125849724e-03</internalNodes>
          <leafValues>
            -1.5954871475696564e-01 2.3498521745204926e-01</leafValues></_>
        <_>
          <internalNodes>
            0 -1 747 3.5127483308315277e-02</internalNodes>
          <leafValues>
            -7.5751468539237976e-02 3.8711673021316528e-01</leafValues></_>
        <_>
          <internalNodes>
            0 -1 206 4.5724520459771156e-03</internalNodes>
          <leafValues>
            -1.2002661824226379e-01 2.5121164321899414e-01</leafValues></_>
        <_>
          <internalNodes>
            0 -1 266 5.2168488036841154e-04</internalNodes>
          <leafValues>
            -1.2854489684104919e-01 2.5947600603103638e-01</leafValues></_>
        <_>
          <internalNodes>
            0 -1 381 -2.5616079568862915e-02</internalNodes>
          <leafValues>
            3.9916485548019409e-01 -3.9808508008718491e-02</leafValues></_>
        <_>
          <internalNodes>
            0 -1 145 -3.7847157567739487e-02</internalNodes>
          <leafValues>
            3.4548595547676086e-01 -9.9321201443672180e-02</leafValues></_>
        <_>
          <internalNodes>
            0 -1 474 1.1138701811432838e-02</internalNodes>
          <leafValues>
            -9.2671476304531097e-02 3.2841390371322632e-01</leafValues></_>
        <_>
          <internalNodes>
            0 -1 672 9.8083110060542822e-04</internalNodes>
          <leafValues>
            -9.9437676370143890e-02 2.7200019359588623e-01</leafValues></_>
        <_>
          <internalNodes>
            0 -1 306 -1.6042410861700773e-03</internalNodes>
          <leafValues>
            2.1350100636482239e-01 -1.2452445924282074e-01</leafValues></_>
        <_>
          <internalNodes>
            0 -1 604 -6.0821250081062317e-02</internalNodes>
          <leafValues>
            -6.5038084983825684e-01 5.5199984461069107e-02</leafValues></_>
        <_>
          <internalNodes>
            0 -1 618 7.8122476115822792e-03</internalNodes>
          <leafValues>
            -1.1061700433492661e-01 2.5955826044082642e-01</leafValues></_>
        <_>
          <internalNodes>
            0 -1 569 1.2782183475792408e-03</internalNodes>
          <leafValues>
            -7.2704605758190155e-02 2.9993537068367004e-01</leafValues></_>
        <_>
          <internalNodes>
            0 -1 571 2.1581868641078472e-03</internalNodes>
          <leafValues>
            -9.8058149218559265e-02 2.8889843821525574e-01</leafValues></_>
        <_>
          <internalNodes>
            0 -1 271 1.1756699532270432e-01</internalNodes>
          <leafValues>
            5.2229821681976318e-02 -5.0081032514572144e-01</leafValues></_>
        <_>
          <internalNodes>
            0 -1 688 1.2016270309686661e-02</internalNodes>
          <leafValues>
            -1.1616993695497513e-01 2.1824948489665985e-01</leafValues></_>
        <_>
          <internalNodes>
            0 -1 125 1.6861104965209961e-01</internalNodes>
          <leafValues>
            6.7963540554046631e-02 -4.8491603136062622e-01</leafValues></_>
        <_>
          <internalNodes>
            0 -1 31 -7.8152511268854141e-03</internalNodes>
          <leafValues>
            3.0572101473808289e-01 -8.5110165178775787e-02</leafValues></_>
        <_>
          <internalNodes>
            0 -1 213 2.6728000491857529e-02</internalNodes>
          <leafValues>
            3.7534665316343307e-02 -6.0093629360198975e-01</leafValues></_>
        <_>
          <internalNodes>
            0 -1 666 5.0528459250926971e-03</internalNodes>
          <leafValues>
            -1.1458185315132141e-01 2.0120006799697876e-01</leafValues></_>
        <_>
          <internalNodes>
            0 -1 865 -2.0155487582087517e-03</internalNodes>
          <leafValues>
            1.9895048439502716e-01 -1.0492335259914398e-01</leafValues></_>
        <_>
          <internalNodes>
            0 -1 286 -9.3105211853981018e-02</internalNodes>
          <leafValues>
            -3.2485264539718628e-01 6.3959099352359772e-02</leafValues></_>
        <_>
          <internalNodes>
            0 -1 598 -6.6070780158042908e-02</internalNodes>
          <leafValues>
            4.6521225571632385e-01 -4.6696588397026062e-02</leafValues></_>
        <_>
          <internalNodes>
            0 -1 516 -6.5153576433658600e-03</internalNodes>
          <leafValues>
            -6.4983254671096802e-01 3.6338977515697479e-02</leafValues></_>
        <_>
          <internalNodes>
            0 -1 35 1.9195883069187403e-03</internalNodes>
          <leafValues>
            -1.0148178040981293e-01 2.0793591439723969e-01</leafValues></_>
        <_>
          <internalNodes>
            0 -1 388 -8.3774374797940254e-03</internalNodes>
          <leafValues>
            1.9217391312122345e-01 -1.1607167869806290e-01</leafValues></_>
        <_>
          <internalNodes>
            0 -1 561 -5.5508309742435813e-04</internalNodes>
          <leafValues>
            1.4627522230148315e-01 -1.4346928894519806e-01</leafValues></_>
        <_>
          <internalNodes>
            0 -1 625 -1.1255235876888037e-03</internalNodes>
          <leafValues>
            2.0714840292930603e-01 -9.2978321015834808e-02</leafValues></_>
        <_>
          <internalNodes>
            0 -1 463 4.9817692488431931e-03</internalNodes>
          <leafValues>
            -8.9000605046749115e-02 2.2589512169361115e-01</leafValues></_>
        <_>
          <internalNodes>
            0 -1 353 -1.5143337659537792e-02</internalNodes>
          <leafValues>
            4.0406888723373413e-01 -4.9422550946474075e-02</leafValues></_>
        <_>
          <internalNodes>
            0 -1 643 -3.6424808204174042e-02</internalNodes>
          <leafValues>
            -5.9189689159393311e-01 3.6533009260892868e-02</leafValues></_>
        <_>
          <internalNodes>
            0 -1 759 8.5714766755700111e-03</internalNodes>
          <leafValues>
            2.6462968438863754e-02 -5.9643322229385376e-01</leafValues></_>
        <_>
          <internalNodes>
            0 -1 180 -8.7647020816802979e-02</internalNodes>
          <leafValues>
            -6.7827242612838745e-01 2.4789553135633469e-02</leafValues></_>
        <_>
          <internalNodes>
            0 -1 611 1.0316938860341907e-03</internalNodes>
          <leafValues>
            -9.7646437585353851e-02 1.8770740926265717e-01</leafValues></_>
        <_>
          <internalNodes>
            0 -1 95 8.5407858714461327e-03</internalNodes>
          <leafValues>
            -9.3630202114582062e-02 1.9359318912029266e-01</leafValues></_>
        <_>
          <internalNodes>
            0 -1 154 4.8289136029779911e-03</internalNodes>
          <leafValues>
            -8.3483502268791199e-02 2.4141496419906616e-01</leafValues></_>
        <_>
          <internalNodes>
            0 -1 225 2.5512821972370148e-02</internalNodes>
          <leafValues>
            4.0999263525009155e-02 -5.2834856510162354e-01</leafValues></_>
        <_>
          <internalNodes>
            0 -1 221 -4.8837956041097641e-02</internalNodes>
          <leafValues>
            6.2764042615890503e-01 -3.5760514438152313e-02</leafValues></_>
        <_>
          <internalNodes>
            0 -1 502 -3.3983061439357698e-04</internalNodes>
          <leafValues>
            1.7927967011928558e-01 -1.0622840374708176e-01</leafValues></_>
        <_>
          <internalNodes>
            0 -1 554 -3.4029267728328705e-02</internalNodes>
          <leafValues>
            -7.5503146648406982e-01 2.3039981722831726e-02</leafValues></_>
        <_>
          <internalNodes>
            0 -1 363 8.7627479806542397e-03</internalNodes>
          <leafValues>
            -9.6854060888290405e-02 1.9504569470882416e-01</leafValues></_></weakClassifiers></_>
    <!-- stage 1 -->
    <_>
      <maxWeakCount>96</maxWeakCount>
      <stageThreshold>-1.0896040201187134e+00</stageThreshold>
      <weakClassifiers>
        <_>
          <internalNodes>
            0 -1 369 3.3005170524120331e-02</internalNodes>
          <leafValues>
            -1.4187531173229218e-01 3.0010384321212769e-01</leafValues></_>
        <_>
          <internalNodes>
            0 -1 528 -1.6936279833316803e-02</internalNodes>
          <leafValues>
            4.4179493188858032e-01 -7.2461515665054321e-02</leafValues></_>
        <_>
          <internalNodes>
            0 -1 596 4.0998525917530060e-02</internalNodes>
          <leafValues>
            -9.8964884877204895e-02 2.7022030949592590e-01</leafValues></_>
        <_>
          <internalNodes>
            0 -1 592 -1.6956165432929993e-02</internalNodes>
          <leafValues>
            -4.3529811501502991e-01 4.2635411024093628e-02</leafValues></_>
        <_>
          <internalNodes>
            0 -1 509 9.6218045800924301e-03</internalNodes>
          <leafValues>
            -7.0034928619861603e-02 2.3750889301300049e-01</leafValues></_>
        <_>
          <internalNodes>
            0 -1 380 -2.6972148567438126e-02</internalNodes>
          <leafValues>
            3.2564258575439453e-01 -8.3210371434688568e-02</leafValues></_>
        <_>
          <internalNodes>
            0 -1 32 -4.0007710456848145e-02</internalNodes>
          <leafValues>
            2.5956103205680847e-01 -6.5158121287822723e-02</leafValues></_>
        <_>
          <internalNodes>
            0 -1 387 1.5388322062790394e-02</internalNodes>
          <leafValues>
            -1.0378250479698181e-01 2.1781836450099945e-01</leafValues></_>
        <_>
          <internalNodes>
            0 -1 53 -1.1796249449253082e-01</internalNodes>
          <leafValues>
            2.9806616902351379e-01 -6.6360235214233398e-02</leafValues></_>
        <_>
          <internalNodes>
            0 -1 454 2.4343756958842278e-03</internalNodes>
          <leafValues>
            -1.0572510957717896e-01 1.9057315587997437e-01</leafValues></_>
        <_>
          <internalNodes>
            0 -1 642 -2.0370263606309891e-02</internalNodes>
          <leafValues>
            -5.8159142732620239e-01 4.0395040065050125e-02</leafValues></_>
        <_>
          <internalNodes>
            0 -1 135 2.6328139938414097e-03</internalNodes>
          <leafValues>
            -9.1195963323116302e-02 2.0759750902652740e-01</leafValues></_>
        <_>
          <internalNodes>
            0 -1 107 -3.2131597399711609e-02</internalNodes>
          <leafValues>
            6.1169970035552979e-01 -2.5188341736793518e-02</leafValues></_>
        <_>
          <internalNodes>
            0 -1 23 -6.4420402050018311e-03</internalNodes>
          <leafValues>
            2.1026575565338135e-01 -8.8839821517467499e-02</leafValues></_>
        <_>
          <internalNodes>
            0 -1 657 7.7406577765941620e-03</internalNodes>
          <leafValues>
            -4.9533516168594360e-02 3.0507022142410278e-01</leafValues></_>
        <_>
          <internalNodes>
            0 -1 555 -6.5679373219609261e-03</internalNodes>
          <leafValues>
            3.3914986252784729e-01 -5.0031792372465134e-02</leafValues></_>
        <_>
          <internalNodes>
            0 -1 510 4.0290970355272293e-03</internalNodes>
          <leafValues>
            -6.3914276659488678e-02 2.3445895314216614e-01</leafValues></_>
        <_>
          <internalNodes>
            0 -1 470 -8.8587645441293716e-03</internalNodes>
          <leafValues>
            2.1383954584598541e-01 -7.7972836792469025e-02</leafValues></_>
        <_>
          <internalNodes>
            0 -1 191 2.9945658519864082e-02</internalNodes>
          <leafValues>
            -7.0766143500804901e-02 2.3487529158592224e-01</leafValues></_>
        <_>
          <internalNodes>
            0 -1 375 5.4088409990072250e-02</internalNodes>
          <leafValues>
            5.4718401283025742e-02 -3.7775757908821106e-01</leafValues></_>
        <_>
          <internalNodes>
            0 -1 741 -2.2726748138666153e-02</internalNodes>
          <leafValues>
            -4.9660784006118774e-01 1.9684853032231331e-02</leafValues></_>
        <_>
          <internalNodes>
            0 -1 443 -3.5113938152790070e-02</internalNodes>
          <leafValues>
            -5.5596578121185303e-01 3.2144747674465179e-02</leafValues></_>
        <_>
          <internalNodes>
            0 -1 401 -3.1280882656574249e-02</internalNodes>
          <leafValues>
            -4.8420992493629456e-01 3.0325876548886299e-02</leafValues></_>
        <_>
          <internalNodes>
            0 -1 839 -2.9472066089510918e-03</internalNodes>
          <leafValues>
            -2.3970592021942139e-01 6.6058419644832611e-02</leafValues></_>
        <_>
          <internalNodes>
            0 -1 732 5.9768250212073326e-03</internalNodes>
          <leafValues>
            -8.1062890589237213e-02 1.9999513030052185e-01</leafValues></_>
        <_>
          <internalNodes>
            0 -1 810 2.4855887517333031e-02</internalNodes>
          <leafValues>
            -5.7125847786664963e-02 2.6409578323364258e-01</leafValues></_>
        <_>
          <internalNodes>
            0 -1 408 1.6391579993069172e-03</internalNodes>
          <leafValues>
            -1.0567602515220642e-01 1.5820050239562988e-01</leafValues></_>
        <_>
          <internalNodes>
            0 -1 830 -3.5098213702440262e-03</internalNodes>
          <leafValues>
            2.3420101404190063e-01 -6.9364845752716064e-02</leafValues></_>
        <_>
          <internalNodes>
            0 -1 209 1.2474885582923889e-01</internalNodes>
          <leafValues>
            3.8106624037027359e-02 -4.4347196817398071e-01</leafValues></_>
        <_>
          <internalNodes>
            0 -1 506 -2.7268633246421814e-02</internalNodes>
          <leafValues>
            -6.3009047508239746e-01 1.9649267196655273e-02</leafValues></_>
        <_>
          <internalNodes>
            0 -1 521 -2.9937592335045338e-03</internalNodes>
          <leafValues>
            1.8461573123931885e-01 -8.5911691188812256e-02</leafValues></_>
        <_>
          <internalNodes>
            0 -1 580 1.2757726944983006e-03</internalNodes>
          <leafValues>
            -9.1989591717720032e-02 1.8842449784278870e-01</leafValues></_>
        <_>
          <internalNodes>
            0 -1 560 -2.3594653233885765e-02</internalNodes>
          <leafValues>
            -4.3887814879417419e-01 3.8502659648656845e-02</leafValues></_>
        <_>
          <internalNodes>
            0 -1 449 6.6866371780633926e-03</internalNodes>
          <leafValues>
            2.0612161606550217e-02 -6.7244094610214233e-01</leafValues></_>
        <_>
          <internalNodes>
            0 -1 433 -2.0260075107216835e-03</internalNodes>
          <leafValues>
            1.9312144815921783e-01 -8.3196185529232025e-02</leafValues></_>
        <_>
          <internalNodes>
            0 -1 704 2.6713399216532707e-02</internalNodes>
          <leafValues>
            3.4797891974449158e-02 -4.5613992214202881e-01</leafValues></_>
        <_>
          <internalNodes>
            0 -1 262 8.0064795911312103e-03</internalNodes>
          <leafValues>
            -5.9699364006519318e-02 2.5688835978507996e-01</leafValues></_>
        <_>
          <internalNodes>
            0 -1 47 7.1465400978922844e-03</internalNodes>
          <leafValues>
            3.3120211213827133e-02 -4.9564811587333679e-01</leafValues></_>
        <_>
          <internalNodes>
            0 -1 133 8.7468288838863373e-03</internalNodes>
          <leafValues>
            -6.4054705202579498e-02 2.6219618320465088e-01</leafValues></_>
        <_>
          <internalNodes>
            0 -1 416 2.8547514230012894e-03</internalNodes>
          <leafValues>
            -7.6693996787071228e-02 1.9537828862667084e-01</leafValues></_>
        <_>
          <internalNodes>
            0 -1 359 5.4874997586011887e-03</internalNodes>
          <leafValues>
            3.4977663308382034e-02 -4.8727524280548096e-01</leafValues></_>
        <_>
          <internalNodes>
            0 -1 374 8.4936041384935379e-03</internalNodes>
          <leafValues>
            -8.4648787975311279e-02 1.8461604416370392e-01</leafValues></_>
        <_>
          <internalNodes>
            0 -1 676 1.3188126031309366e-03</internalNodes>
          <leafValues>
            -8.2879118621349335e-02 2.0626822113990784e-01</leafValues></_>
        <_>
          <internalNodes>
            0 -1 325 -3.4107986837625504e-02</internalNodes>
          <leafValues>
            -4.8926657438278198e-01 3.1812112778425217e-02</leafValues></_>
        <_>
          <internalNodes>
            0 -1 420 1.0569053702056408e-03</internalNodes>
          <leafValues>
            -8.2500815391540527e-02 1.8877591192722321e-01</leafValues></_>
        <_>
          <internalNodes>
            0 -1 772 -8.2070589065551758e-02</internalNodes>
          <leafValues>
            2.7340734004974365e-01 -5.2112445235252380e-02</leafValues></_>
        <_>
          <internalNodes>
            0 -1 696 8.3379102870821953e-03</internalNodes>
          <leafValues>
            -7.9034380614757538e-02 1.9377569854259491e-01</leafValues></_>
        <_>
          <internalNodes>
            0 -1 112 -8.1227339804172516e-02</internalNodes>
          <leafValues>
            3.6633345484733582e-01 -3.4119982272386551e-02</leafValues></_>
        <_>
          <internalNodes>
            0 -1 469 -5.7532368227839470e-03</internalNodes>
          <leafValues>
            1.9547002017498016e-01 -7.3356851935386658e-02</leafValues></_>
        <_>
          <internalNodes>
            0 -1 668 9.4098597764968872e-03</internalNodes>
          <leafValues>
            2.9304720461368561e-02 -5.1261579990386963e-01</leafValues></_>
        <_>
          <internalNodes>
            0 -1 629 2.3651353549212217e-03</internalNodes>
          <leafValues>
            -8.5467606782913208e-02 1.6835169494152069e-01</leafValues></_>
        <_>
          <internalNodes>
            0 -1 862 -5.0300769507884979e-03</internalNodes>
          <leafValues>
            -6.9063723087310791e-01 2.0777687430381775e-02</leafValues></_>
        <_>
          <internalNodes>
            0 -1 169 7.1637774817645550e-04</internalNodes>
          <leafValues>
            -1.0501109808683395e-01 1.2798604369163513e-01</leafValues></_>
        <_>
          <internalNodes>
            0 -1 549 -4.4641378917731345e-04</internalNodes>
          <leafValues>
            1.3520835340023041e-01 -1.0000733286142349e-01</leafValues></_>
        <_>
          <internalNodes>
            0 -1 714 -5.2933469414710999e-03</internalNodes>
          <leafValues>
            -7.3324078321456909e-01 1.7376173287630081e-02</leafValues></_>
        <_>
          <internalNodes>
            0 -1 344 5.8189476840198040e-04</internalNodes>
          <leafValues>
            -8.5577942430973053e-02 1.6761186718940735e-01</leafValues></_>
        <_>
          <internalNodes>
            0 -1 79 -3.8574063219130039e-03</internalNodes>
          <leafValues>
            1.4122343063354492e-01 -1.0052851587533951e-01</leafValues></_>
        <_>
          <internalNodes>
            0 -1 37 1.0127518326044083e-02</internalNodes>
          <leafValues>
            -7.2578802704811096e-02 2.0815810561180115e-01</leafValues></_>
        <_>
          <internalNodes>
            0 -1 677 -1.1129604652523994e-02</internalNodes>
          <leafValues>
            2.2002565860748291e-01 -6.1848942190408707e-02</leafValues></_>
        <_>
          <internalNodes>
            0 -1 851 -1.5044886386021972e-03</internalNodes>
          <leafValues>
            -2.5953102111816406e-01 5.4163068532943726e-02</leafValues></_>
        <_>
          <internalNodes>
            0 -1 742 3.2724909484386444e-02</internalNodes>
          <leafValues>
            3.0101718381047249e-02 -4.8501729965209961e-01</leafValues></_>
        <_>
          <internalNodes>
            0 -1 533 4.1424967348575592e-02</internalNodes>
          <leafValues>
            2.5172149762511253e-02 -5.0425583124160767e-01</leafValues></_>
        <_>
          <internalNodes>
            0 -1 217 -7.6851010322570801e-02</internalNodes>
          <leafValues>
            -2.2967264056205750e-01 5.7283654808998108e-02</leafValues></_>
        <_>
          <internalNodes>
            0 -1 479 -5.6653477251529694e-02</internalNodes>
          <leafValues>
            2.7106696367263794e-01 -5.4244291037321091e-02</leafValues></_>
        <_>
          <internalNodes>
            0 -1 605 -8.5032377392053604e-03</internalNodes>
          <leafValues>
            1.7593891918659210e-01 -7.5081117451190948e-02</leafValues></_>
        <_>
          <internalNodes>
            0 -1 123 -5.8470688760280609e-02</internalNodes>
          <leafValues>
            3.6395141482353210e-01 -3.9010208100080490e-02</leafValues></_>
        <_>
          <internalNodes>
            0 -1 283 -9.8702982068061829e-03</internalNodes>
          <leafValues>
            -3.3883899450302124e-01 4.3212711811065674e-02</leafValues></_>
        <_>
          <internalNodes>
            0 -1 534 -3.9509925991296768e-03</internalNodes>
          <leafValues>
            2.0923949778079987e-01 -6.6564761102199554e-02</leafValues></_>
        <_>
          <internalNodes>
            0 -1 281 5.0706574693322182e-03</internalNodes>
          <leafValues>
            1.8963286653161049e-02 -6.8716728687286377e-01</leafValues></_>
        <_>
          <internalNodes>
            0 -1 467 -6.4685742836445570e-04</internalNodes>
          <leafValues>
            1.4965973794460297e-01 -8.9647918939590454e-02</leafValues></_>
        <_>
          <internalNodes>
            0 -1 224 1.3751820661127567e-03</internalNodes>
          <leafValues>
            -7.8409865498542786e-02 1.6613546013832092e-01</leafValues></_>
        <_>
          <internalNodes>
            0 -1 287 1.3178379740566015e-03</internalNodes>
          <leafValues>
            -6.4205147325992584e-02 2.3707874119281769e-01</leafValues></_>
        <_>
          <internalNodes>
            0 -1 240 1.1360881850123405e-02</internalNodes>
          <leafValues>
            3.6916833370923996e-02 -4.0730929374694824e-01</leafValues></_>
        <_>
          <internalNodes>
            0 -1 476 -1.4634264633059502e-02</internalNodes>
          <leafValues>
            -5.4338580369949341e-01 2.1591590717434883e-02</leafValues></_>
        <_>
          <internalNodes>
            0 -1 683 -2.7215760201215744e-02</internalNodes>
          <leafValues>
            3.0577245354652405e-01 -4.3453298509120941e-02</leafValues></_>
        <_>
          <internalNodes>
            0 -1 567 -1.2464109808206558e-02</internalNodes>
          <leafValues>
            1.9477024674415588e-01 -6.6182367503643036e-02</leafValues></_>
        <_>
          <internalNodes>
            0 -1 731 6.3742971979081631e-03</internalNodes>
          <leafValues>
            2.2825403138995171e-02 -5.3901076316833496e-01</leafValues></_>
        <_>
          <internalNodes>
            0 -1 69 1.6209381818771362e-01</internalNodes>
          <leafValues>
            1.7328927293419838e-02 -7.1164405345916748e-01</leafValues></_>
        <_>
          <internalNodes>
            0 -1 768 1.3401752337813377e-02</internalNodes>
          <leafValues>
            -5.0335168838500977e-02 2.8383445739746094e-01</leafValues></_>
        <_>
          <internalNodes>
            0 -1 410 8.4403052926063538e-02</internalNodes>
          <leafValues>
            3.1958699226379395e-02 -4.1827672719955444e-01</leafValues></_>
        <_>
          <internalNodes>
            0 -1 247 7.5752483680844307e-03</internalNodes>
          <leafValues>
            -6.9027997553348541e-02 2.0600496232509613e-01</leafValues></_>
        <_>
          <internalNodes>
            0 -1 73 -6.3145672902464867e-03</internalNodes>
          <leafValues>
            1.7136353254318237e-01 -8.4566988050937653e-02</leafValues></_>
        <_>
          <internalNodes>
            0 -1 333 1.4819452539086342e-02</internalNodes>
          <leafValues>
            3.7108253687620163e-02 -4.0677577257156372e-01</leafValues></_>
        <_>
          <internalNodes>
            0 -1 68 4.3272223323583603e-02</internalNodes>
          <leafValues>
            -4.4012907892465591e-02 3.2852923870086670e-01</leafValues></_>
        <_>
          <internalNodes>
            0 -1 686 2.5125317275524139e-02</internalNodes>
          <leafValues>
            2.2834099829196930e-02 -5.5433684587478638e-01</leafValues></_>
        <_>
          <internalNodes>
            0 -1 207 4.2017996311187744e-03</internalNodes>
          <leafValues>
            -7.2658650577068329e-02 1.9476713240146637e-01</leafValues></_>
        <_>
          <internalNodes>
            0 -1 33 -1.9876262173056602e-02</internalNodes>
          <leafValues>
            -6.9121336936950684e-01 1.9764289259910583e-02</leafValues></_>
        <_>
          <internalNodes>
            0 -1 617 1.0081661865115166e-02</internalNodes>
          <leafValues>
            -8.4118977189064026e-02 1.4911086857318878e-01</leafValues></_>
        <_>
          <internalNodes>
            0 -1 419 1.3235634565353394e-01</internalNodes>
          <leafValues>
            2.7333104982972145e-02 -6.2827950716018677e-01</leafValues></_>
        <_>
          <internalNodes>
            0 -1 351 1.1735949665307999e-03</internalNodes>
          <leafValues>
            -8.0461479723453522e-02 1.7212793231010437e-01</leafValues></_>
        <_>
          <internalNodes>
            0 -1 663 -4.4732753303833306e-04</internalNodes>
          <leafValues>
            1.2342701852321625e-01 -1.0363539308309555e-01</leafValues></_>
        <_>
          <internalNodes>
            0 -1 771 -3.4948471002280712e-03</internalNodes>
          <leafValues>
            -4.5670843124389648e-01 2.6284025982022285e-02</leafValues></_>
        <_>
          <internalNodes>
            0 -1 626 -4.1856011375784874e-03</internalNodes>
          <leafValues>
            -5.1089423894882202e-01 2.3952709510922432e-02</leafValues></_>
        <_>
          <internalNodes>
            0 -1 242 5.2281008101999760e-03</internalNodes>
          <leafValues>
            2.1135361865162849e-02 -5.2523767948150635e-01</leafValues></_>
        <_>
          <internalNodes>
            0 -1 442 1.2607881799340248e-02</internalNodes>
          <leafValues>
            -4.3221592903137207e-02 3.2551053166389465e-01</leafValues></_>
        <_>
          <internalNodes>
            0 -1 860 -2.7010861784219742e-02</internalNodes>
          <leafValues>
            4.2856198549270630e-01 -2.9512835666537285e-02</leafValues></_></weakClassifiers></_>
    <!-- stage 2 -->
    <_>
      <maxWeakCount>96</maxWeakCount>
      <stageThreshold>-9.3447178602218628e-01</stageThreshold>
      <weakClassifiers>
        <_>
          <internalNodes>
            0 -1 11 -2.0382848381996155e-01</internalNodes>
          <leafValues>
            2.2175732254981995e-01 -1.2392829358577728e-01</leafValues></_>
        <_>
          <internalNodes>
            0 -1 19 -1.8690364435315132e-02</internalNodes>
          <leafValues>
            2.8735479712486267e-01 -8.1364490091800690e-02</leafValues></_>
        <_>
          <internalNodes>
            0 -1 189 7.5229257345199585e-03</internalNodes>
          <leafValues>
            -1.5163038671016693e-01 1.5512271225452423e-01</leafValues></_>
        <_>
          <internalNodes>
            0 -1 177 1.5291321277618408e-01</internalNodes>
          <leafValues>
            6.4961932599544525e-02 -5.6860417127609253e-01</leafValues></_>
        <_>
          <internalNodes>
            0 -1 477 -1.6826039180159569e-02</internalNodes>
          <leafValues>
            3.0933624505996704e-01 -5.4301455616950989e-02</leafValues></_>
        <_>
          <internalNodes>
            0 -1 434 1.5444658696651459e-02</internalNodes>
          <leafValues>
            -1.3109558820724487e-01 2.1531313657760620e-01</leafValues></_>
        <_>
          <internalNodes>
            0 -1 398 1.1362445075064898e-03</internalNodes>
          <leafValues>
            -1.0788999497890472e-01 1.7782710492610931e-01</leafValues></_>
        <_>
          <internalNodes>
            0 -1 309 -1.4698766171932220e-02</internalNodes>
          <leafValues>
            3.1069636344909668e-01 -4.7971662133932114e-02</leafValues></_>
        <_>
          <internalNodes>
            0 -1 868 -1.9022420747205615e-03</internalNodes>
          <leafValues>
            1.6734819114208221e-01 -9.9556244909763336e-02</leafValues></_>
        <_>
          <internalNodes>
            0 -1 188 -1.7932534683495760e-03</internalNodes>
          <leafValues>
            1.8340116739273071e-01 -6.4167432487010956e-02</leafValues></_>
        <_>
          <internalNodes>
            0 -1 17 2.1491535007953644e-02</internalNodes>
          <leafValues>
            -5.0919383764266968e-02 2.5744000077247620e-01</leafValues></_>
        <_>
          <internalNodes>
            0 -1 441 3.8688618689775467e-02</internalNodes>
          <leafValues>
            -5.0057377666234970e-02 4.0107008814811707e-01</leafValues></_>
        <_>
          <internalNodes>
            0 -1 126 -3.2714591361582279e-03</internalNodes>
          <leafValues>
            1.8459513783454895e-01 -8.8686652481555939e-02</leafValues></_>
        <_>
          <internalNodes>
            0 -1 251 -1.0227824095636606e-03</internalNodes>
          <leafValues>
            1.5840698778629303e-01 -9.3924179673194885e-02</leafValues></_>
        <_>
          <internalNodes>
            0 -1 448 -5.4625447839498520e-02</internalNodes>
          <leafValues>
            -2.5784066319465637e-01 6.4392983913421631e-02</leafValues></_>
        <_>
          <internalNodes>
            0 -1 500 -1.1231566313654184e-03</internalNodes>
          <leafValues>
            1.1889976263046265e-01 -1.6473573446273804e-01</leafValues></_>
        <_>
          <internalNodes>
            0 -1 706 -2.1212147548794746e-02</internalNodes>
          <leafValues>
            -7.9924309253692627e-01 3.7186898291110992e-02</leafValues></_>
        <_>
          <internalNodes>
            0 -1 542 -7.1823209524154663e-02</internalNodes>
          <leafValues>
            3.9796301722526550e-01 -4.1430853307247162e-02</leafValues></_>
        <_>
          <internalNodes>
            0 -1 636 1.5902483137324452e-03</internalNodes>
          <leafValues>
            -7.7851541340351105e-02 1.7061914503574371e-01</leafValues></_>
        <_>
          <internalNodes>
            0 -1 480 -1.6251487657427788e-02</internalNodes>
          <leafValues>
            -4.8586192727088928e-01 2.7346279472112656e-02</leafValues></_>
        <_>
          <internalNodes>
            0 -1 326 -2.4020336568355560e-03</internalNodes>
          <leafValues>
            1.9109727442264557e-01 -6.8127103149890900e-02</leafValues></_>
        <_>
          <internalNodes>
            0 -1 326 1.5430515632033348e-03</internalNodes>
          <leafValues>
            -8.2120873034000397e-02 1.8029586970806122e-01</leafValues></_>
        <_>
          <internalNodes>
            0 -1 724 -1.5003268606960773e-02</internalNodes>
          <leafValues>
            -5.7060903310775757e-01 1.8099069595336914e-02</leafValues></_>
        <_>
          <internalNodes>
            0 -1 720 -1.5843370929360390e-02</internalNodes>
          <leafValues>
            -6.7546355724334717e-01 2.0759932696819305e-02</leafValues></_>
        <_>
          <internalNodes>
            0 -1 843 2.2578355856239796e-03</internalNodes>
          <leafValues>
            -6.8813212215900421e-02 1.9779451191425323e-01</leafValues></_>
        <_>
          <internalNodes>
            0 -1 702 5.7455422356724739e-03</internalNodes>
          <leafValues>
            -5.0938852131366730e-02 2.7833032608032227e-01</leafValues></_>
        <_>
          <internalNodes>
            0 -1 697 -3.5674257669597864e-03</internalNodes>
          <leafValues>
            2.0315879583358765e-01 -6.8044714629650116e-02</leafValues></_>
        <_>
          <internalNodes>
            0 -1 526 -1.6788441687822342e-02</internalNodes>
          <leafValues>
            -2.3930442333221436e-01 5.8794878423213959e-02</leafValues></_>
        <_>
          <internalNodes>
            0 -1 355 1.9764602184295654e-02</internalNodes>
          <leafValues>
            -3.7342768162488937e-02 3.8144025206565857e-01</leafValues></_>
        <_>
          <internalNodes>
            0 -1 379 -4.1289050132036209e-03</internalNodes>
          <leafValues>
            2.4537703394889832e-01 -4.5888885855674744e-02</leafValues></_>
        <_>
          <internalNodes>
            0 -1 620 6.3034339109435678e-04</internalNodes>
          <leafValues>
            -8.4353417158126831e-02 1.4389421045780182e-01</leafValues></_>
        <_>
          <internalNodes>
            0 -1 722 5.1556881517171860e-03</internalNodes>
          <leafValues>
            -7.4090860784053802e-02 1.8615010380744934e-01</leafValues></_>
        <_>
          <internalNodes>
            0 -1 763 -1.5397795941680670e-03</internalNodes>
          <leafValues>
            1.9162562489509583e-01 -8.3140030503273010e-02</leafValues></_>
        <_>
          <internalNodes>
            0 -1 192 9.6729606389999390e-02</internalNodes>
          <leafValues>
            3.9957083761692047e-02 -3.1587171554565430e-01</leafValues></_>
        <_>
          <internalNodes>
            0 -1 181 -7.4433102272450924e-03</internalNodes>
          <leafValues>
            -4.2447295784950256e-01 3.0937772244215012e-02</leafValues></_>
        <_>
          <internalNodes>
            0 -1 553 1.5037666307762265e-03</internalNodes>
          <leafValues>
            -7.8524567186832428e-02 1.5130849182605743e-01</leafValues></_>
        <_>
          <internalNodes>
            0 -1 179 -7.5443103909492493e-02</internalNodes>
          <leafValues>
            -3.8884964585304260e-01 3.3215872943401337e-02</leafValues></_>
        <_>
          <internalNodes>
            0 -1 269 8.0493450164794922e-02</internalNodes>
          <leafValues>
            5.8762684464454651e-02 -2.5679931044578552e-01</leafValues></_>
        <_>
          <internalNodes>
            0 -1 465 -7.0600560866296291e-04</internalNodes>
          <leafValues>
            1.6938029229640961e-01 -7.8952662646770477e-02</leafValues></_>
        <_>
          <internalNodes>
            0 -1 465 5.4988171905279160e-04</internalNodes>
          <leafValues>
            -9.6972584724426270e-02 1.8030692636966705e-01</leafValues></_>
        <_>
          <internalNodes>
            0 -1 718 -1.1812306940555573e-02</internalNodes>
          <leafValues>
            -4.5592769980430603e-01 2.8808025643229485e-02</leafValues></_>
        <_>
          <internalNodes>
            0 -1 838 9.3070225557312369e-04</internalNodes>
          <leafValues>
            7.0638209581375122e-02 -1.8369290232658386e-01</leafValues></_>
        <_>
          <internalNodes>
            0 -1 588 -7.9335734248161316e-02</internalNodes>
          <leafValues>
            -5.0477349758148193e-01 2.6740167289972305e-02</leafValues></_>
        <_>
          <internalNodes>
            0 -1 757 9.5323622226715088e-03</internalNodes>
          <leafValues>
            -7.2462894022464752e-02 1.7267929017543793e-01</leafValues></_>
        <_>
          <internalNodes>
            0 -1 796 -1.6161506064236164e-03</internalNodes>
          <leafValues>
            1.5681527554988861e-01 -8.1181772053241730e-02</leafValues></_>
        <_>
          <internalNodes>
            0 -1 134 2.7154613286256790e-02</internalNodes>
          <leafValues>
            2.8919342905282974e-02 -5.2912378311157227e-01</leafValues></_>
        <_>
          <internalNodes>
            0 -1 807 -3.3896993845701218e-03</internalNodes>
          <leafValues>
            -4.4775074720382690e-01 2.4515405297279358e-02</leafValues></_>
        <_>
          <internalNodes>
            0 -1 654 5.0599901005625725e-03</internalNodes>
          <leafValues>
            -6.7916557192802429e-02 1.7293764650821686e-01</leafValues></_>
        <_>
          <internalNodes>
            0 -1 700 -4.8606505151838064e-04</internalNodes>
          <leafValues>
            1.5102580189704895e-01 -8.3439059555530548e-02</leafValues></_>
        <_>
          <internalNodes>
            0 -1 815 5.8865509927272797e-03</internalNodes>
          <leafValues>
            2.0382719114422798e-02 -5.5353355407714844e-01</leafValues></_>
        <_>
          <internalNodes>
            0 -1 575 -5.6230565533041954e-03</internalNodes>
          <leafValues>
            -6.8226170539855957e-01 1.3571763411164284e-02</leafValues></_>
        <_>
          <internalNodes>
            0 -1 818 -3.6004222929477692e-03</internalNodes>
          <leafValues>
            1.5723854303359985e-01 -7.0608131587505341e-02</leafValues></_>
        <_>
          <internalNodes>
            0 -1 819 1.3575892895460129e-02</internalNodes>
          <leafValues>
            -6.2894307076931000e-02 2.1015384793281555e-01</leafValues></_>
        <_>
          <internalNodes>
            0 -1 879 4.2811166495084763e-03</internalNodes>
          <leafValues>
            2.2517189383506775e-02 -4.8790225386619568e-01</leafValues></_>
        <_>
          <internalNodes>
            0 -1 242 -6.7411456257104874e-04</internalNodes>
          <leafValues>
            1.3819596171379089e-01 -8.5031531751155853e-02</leafValues></_>
        <_>
          <internalNodes>
            0 -1 711 2.4014662485569715e-03</internalNodes>
          <leafValues>
            -6.1843305826187134e-02 1.7373904585838318e-01</leafValues></_>
        <_>
          <internalNodes>
            0 -1 563 -1.8359187990427017e-02</internalNodes>
          <leafValues>
            -4.1936275362968445e-01 2.7912914752960205e-02</leafValues></_>
        <_>
          <internalNodes>
            0 -1 653 3.0661050230264664e-02</internalNodes>
          <leafValues>
            2.0590540021657944e-02 -4.8912405967712402e-01</leafValues></_>
        <_>
          <internalNodes>
            0 -1 637 3.4587120171636343e-03</internalNodes>
          <leafValues>
            -6.4856298267841339e-02 1.7479170858860016e-01</leafValues></_>
        <_>
          <internalNodes>
            0 -1 84 -4.2165657505393028e-03</internalNodes>
          <leafValues>
            -1.8551988899707794e-01 5.7400811463594437e-02</leafValues></_>
        <_>
          <internalNodes>
            0 -1 633 4.4905794784426689e-03</internalNodes>
          <leafValues>
            -5.2020687609910965e-02 2.0628391206264496e-01</leafValues></_>
        <_>
          <internalNodes>
            0 -1 797 8.0662639811635017e-03</internalNodes>
          <leafValues>
            1.6647463664412498e-02 -6.0160976648330688e-01</leafValues></_>
        <_>
          <internalNodes>
            0 -1 262 2.4575178977102041e-03</internalNodes>
          <leafValues>
            -7.8741677105426788e-02 1.3593518733978271e-01</leafValues></_>
        <_>
          <internalNodes>
            0 -1 853 7.3373375926166773e-04</internalNodes>
          <leafValues>
            7.2480276226997375e-02 -1.5263989567756653e-01</leafValues></_>
        <_>
          <internalNodes>
            0 -1 20 2.1974544972181320e-02</internalNodes>
          <leafValues>
            -3.4817494451999664e-02 3.2489487528800964e-01</leafValues></_>
        <_>
          <internalNodes>
            0 -1 744 1.3871267437934875e-02</internalNodes>
          <leafValues>
            2.0220279693603516e-02 -6.0001933574676514e-01</leafValues></_>
        <_>
          <internalNodes>
            0 -1 853 -1.1233382392674685e-03</internalNodes>
          <leafValues>
            -1.7097185552120209e-01 6.1753988265991211e-02</leafValues></_>
        <_>
          <internalNodes>
            0 -1 182 6.1876187101006508e-03</internalNodes>
          <leafValues>
            -6.0112368315458298e-02 1.9876518845558167e-01</leafValues></_>
        <_>
          <internalNodes>
            0 -1 10 -3.0071996152400970e-02</internalNodes>
          <leafValues>
            1.9508773088455200e-01 -5.4960273206233978e-02</leafValues></_>
        <_>
          <internalNodes>
            0 -1 751 1.4196067117154598e-02</internalNodes>
          <leafValues>
            -6.1917923390865326e-02 1.8834993243217468e-01</leafValues></_>
        <_>
          <internalNodes>
            0 -1 89 2.0427161827683449e-02</internalNodes>
          <leafValues>
            -3.8700364530086517e-02 2.8774368762969971e-01</leafValues></_>
        <_>
          <internalNodes>
            0 -1 845 7.9607376828789711e-03</internalNodes>
          <leafValues>
            1.3805264607071877e-02 -7.9820853471755981e-01</leafValues></_>
        <_>
          <internalNodes>
            0 -1 630 2.1447164472192526e-03</internalNodes>
          <leafValues>
            -6.8965360522270203e-02 1.6231328248977661e-01</leafValues></_>
        <_>
          <internalNodes>
            0 -1 682 -1.6293318476527929e-03</internalNodes>
          <leafValues>
            1.7767564952373505e-01 -7.3420532047748566e-02</leafValues></_>
        <_>
          <internalNodes>
            0 -1 591 6.6582588478922844e-03</internalNodes>
          <leafValues>
            -6.9764137268066406e-02 1.4881898462772369e-01</leafValues></_>
        <_>
          <internalNodes>
            0 -1 282 -1.4896519482135773e-02</internalNodes>
          <leafValues>
            -7.0550990104675293e-01 1.7038837075233459e-02</leafValues></_>
        <_>
          <internalNodes>
            0 -1 301 -2.8239691164344549e-03</internalNodes>
          <leafValues>
            1.4033046364784241e-01 -7.6758489012718201e-02</leafValues></_>
        <_>
          <internalNodes>
            0 -1 590 -7.9166013747453690e-03</internalNodes>
          <leafValues>
            1.6640043258666992e-01 -6.0987651348114014e-02</leafValues></_>
        <_>
          <internalNodes>
            0 -1 776 9.5793325453996658e-03</internalNodes>
          <leafValues>
            2.6930902153253555e-02 -3.8778936862945557e-01</leafValues></_>
        <_>
          <internalNodes>
            0 -1 498 -2.0959425717592239e-02</internalNodes>
          <leafValues>
            2.9286444187164307e-01 -3.9738021790981293e-02</leafValues></_>
        <_>
          <internalNodes>
            0 -1 453 -1.2783486396074295e-02</internalNodes>
          <leafValues>
            1.5028181672096252e-01 -8.3404339849948883e-02</leafValues></_>
        <_>
          <internalNodes>
            0 -1 597 -7.8775987029075623e-02</internalNodes>
          <leafValues>
            -3.8318437337875366e-01 3.0043037608265877e-02</leafValues></_>
        <_>
          <internalNodes>
            0 -1 348 9.0204371372237802e-04</internalNodes>
          <leafValues>
            -6.3909903168678284e-02 1.7438107728958130e-01</leafValues></_>
        <_>
          <internalNodes>
            0 -1 2 8.0253863707184792e-03</internalNodes>
          <leafValues>
            2.7040721848607063e-02 -3.9633306860923767e-01</leafValues></_>
        <_>
          <internalNodes>
            0 -1 723 -8.4932502359151840e-03</internalNodes>
          <leafValues>
            1.9778026640415192e-01 -5.5516775697469711e-02</leafValues></_>
        <_>
          <internalNodes>
            0 -1 254 5.3952061571180820e-03</internalNodes>
          <leafValues>
            2.4291243404150009e-02 -4.3959185481071472e-01</leafValues></_>
        <_>
          <internalNodes>
            0 -1 869 8.5190925747156143e-03</internalNodes>
          <leafValues>
            -3.3371753990650177e-02 3.2953062653541565e-01</leafValues></_>
        <_>
          <internalNodes>
            0 -1 393 -1.9539002329111099e-02</internalNodes>
          <leafValues>
            -4.6035584807395935e-01 2.5201689451932907e-02</leafValues></_>
        <_>
          <internalNodes>
            0 -1 749 9.6413935534656048e-04</internalNodes>
          <leafValues>
            -8.6669139564037323e-02 1.2863941490650177e-01</leafValues></_>
        <_>
          <internalNodes>
            0 -1 75 1.0320249199867249e-01</internalNodes>
          <leafValues>
            3.5855323076248169e-02 -3.5374996066093445e-01</leafValues></_>
        <_>
          <internalNodes>
            0 -1 582 -6.1982702463865280e-03</internalNodes>
          <leafValues>
            -7.7434569597244263e-01 1.4163090847432613e-02</leafValues></_>
        <_>
          <internalNodes>
            0 -1 170 6.7319631576538086e-02</internalNodes>
          <leafValues>
            1.6757233068346977e-02 -5.4487437009811401e-01</leafValues></_>
        <_>
          <internalNodes>
            0 -1 202 -5.5960975587368011e-03</internalNodes>
          <leafValues>
            -4.3174508213996887e-01 2.3816592991352081e-02</leafValues></_>
        <_>
          <internalNodes>
            0 -1 218 -8.2650691270828247e-02</internalNodes>
          <leafValues>
            -7.2465604543685913e-01 1.3363800011575222e-02</leafValues></_>
        <_>
          <internalNodes>
            0 -1 421 -1.1693337000906467e-03</internalNodes>
          <leafValues>
            1.6534963250160217e-01 -6.4768522977828979e-02</leafValues></_>
        <_>
          <internalNodes>
            0 -1 199 5.0606774166226387e-03</internalNodes>
          <leafValues>
            6.3358426094055176e-02 -1.6641983389854431e-01</leafValues></_></weakClassifiers></_>
    <!-- stage 3 -->
    <_>
      <maxWeakCount>100</maxWeakCount>
      <stageThreshold>-1.0578912496566772e+00</stageThreshold>
      <weakClassifiers>
        <_>
          <internalNodes>
            0 -1 738 5.0533570349216461e-02</internalNodes>
          <leafValues>
            -9.0949818491935730e-02 2.6432290673255920e-01</leafValues></_>
        <_>
          <internalNodes>
            0 -1 259 -4.5872028917074203e-02</internalNodes>
          <leafValues>
            4.0316981077194214e-01 -4.8233155161142349e-02</leafValues></_>
        <_>
          <internalNodes>
            0 -1 583 5.9200339019298553e-03</internalNodes>
          <leafValues>
            -7.2471648454666138e-02 2.8093576431274414e-01</leafValues></_>
        <_>
          <internalNodes>
            0 -1 327 -1.8886277079582214e-01</internalNodes>
          <leafValues>
            3.6168900132179260e-01 -6.5231025218963623e-02</leafValues></_>
        <_>
          <internalNodes>
            0 -1 337 -5.9028785675764084e-02</internalNodes>
          <leafValues>
            -2.6748976111412048e-01 6.2317278236150742e-02</leafValues></_>
        <_>
          <internalNodes>
            0 -1 176 1.2475108727812767e-02</internalNodes>
          <leafValues>
            -9.2130653560161591e-02 2.0508511364459991e-01</leafValues></_>
        <_>
          <internalNodes>
            0 -1 101 -8.2620784640312195e-02</internalNodes>
          <leafValues>
            2.1416458487510681e-01 -5.1928181201219559e-02</leafValues></_>
        <_>
          <internalNodes>
            0 -1 22 1.0600386187434196e-02</internalNodes>
          <leafValues>
            -8.6825616657733917e-02 2.1956335008144379e-01</leafValues></_>
        <_>
          <internalNodes>
            0 -1 380 -2.7555137872695923e-02</internalNodes>
          <leafValues>
            2.5353881716728210e-01 -5.9072826057672501e-02</leafValues></_>
        <_>
          <internalNodes>
            0 -1 100 -7.5231805443763733e-02</internalNodes>
          <leafValues>
            4.8319262266159058e-01 -1.3552677817642689e-02</leafValues></_>
        <_>
          <internalNodes>
            0 -1 55 2.2224513813853264e-02</internalNodes>
          <leafValues>
            -7.0909574627876282e-02 1.8730334937572479e-01</leafValues></_>
        <_>
          <internalNodes>
            0 -1 603 -6.1721861362457275e-02</internalNodes>
          <leafValues>
            -6.0448718070983887e-01 3.9079204201698303e-02</leafValues></_>
        <_>
          <internalNodes>
            0 -1 537 -1.6476614400744438e-02</internalNodes>
          <leafValues>
            -4.2642554640769958e-01 2.1920483559370041e-02</leafValues></_>
        <_>
          <internalNodes>
            0 -1 361 -8.2343313843011856e-03</internalNodes>
          <leafValues>
            1.7000287771224976e-01 -6.2951967120170593e-02</leafValues></_>
        <_>
          <internalNodes>
            0 -1 547 -3.6893226206302643e-03</internalNodes>
          <leafValues>
            1.5196391940116882e-01 -8.1999257206916809e-02</leafValues></_>
        <_>
          <internalNodes>
            0 -1 545 -1.2821273878216743e-02</internalNodes>
          <leafValues>
            1.8183095753192902e-01 -7.6581075787544250e-02</leafValues></_>
        <_>
          <internalNodes>
            0 -1 594 1.0602571070194244e-02</internalNodes>
          <leafValues>
            -3.7303719669580460e-02 2.8563651442527771e-01</leafValues></_>
        <_>
          <internalNodes>
            0 -1 601 -1.5393028035759926e-02</internalNodes>
          <leafValues>
            -6.7012256383895874e-01 1.7860585823655128e-02</leafValues></_>
        <_>
          <internalNodes>
            0 -1 312 -2.2758349776268005e-02</internalNodes>
          <leafValues>
            4.2803195118904114e-01 -2.5470199063420296e-02</leafValues></_>
        <_>
          <internalNodes>
            0 -1 646 -2.2789376974105835e-01</internalNodes>
          <leafValues>
            3.2155075669288635e-01 -3.7993215024471283e-02</leafValues></_>
        <_>
          <internalNodes>
            0 -1 705 -4.7041840851306915e-02</internalNodes>
          <leafValues>
            -3.4510326385498047e-01 3.4713990986347198e-02</leafValues></_>
        <_>
          <internalNodes>
            0 -1 51 9.6205470617860556e-04</internalNodes>
          <leafValues>
            6.1573222279548645e-02 -1.8335154652595520e-01</leafValues></_>
        <_>
          <internalNodes>
            0 -1 555 -4.2483187280595303e-03</internalNodes>
          <leafValues>
            2.2827970981597900e-01 -5.1567524671554565e-02</leafValues></_>
        <_>
          <internalNodes>
            0 -1 494 -1.6996669583022594e-03</internalNodes>
          <leafValues>
            1.2658670544624329e-01 -8.7650403380393982e-02</leafValues></_>
        <_>
          <internalNodes>
            0 -1 14 -1.0763697326183319e-01</internalNodes>
          <leafValues>
            2.2006592154502869e-01 -4.6953476965427399e-02</leafValues></_>
        <_>
          <internalNodes>
            0 -1 110 -1.1837389320135117e-01</internalNodes>
          <leafValues>
            -2.2972595691680908e-01 4.9034580588340759e-02</leafValues></_>
        <_>
          <internalNodes>
            0 -1 341 -3.0470162630081177e-02</internalNodes>
          <leafValues>
            -4.8710846900939941e-01 2.4137379601597786e-02</leafValues></_>
        <_>
          <internalNodes>
            0 -1 252 -4.0539996698498726e-03</internalNodes>
          <leafValues>
            1.8420907855033875e-01 -6.6195838153362274e-02</leafValues></_>
        <_>
          <internalNodes>
            0 -1 637 2.6413991581648588e-03</internalNodes>
          <leafValues>
            -7.0759363472461700e-02 1.5981934964656830e-01</leafValues></_>
        <_>
          <internalNodes>
            0 -1 770 4.2918850667774677e-03</internalNodes>
          <leafValues>
            2.5242522358894348e-02 -4.5391798019409180e-01</leafValues></_>
        <_>
          <internalNodes>
            0 -1 690 1.3119074283167720e-03</internalNodes>
          <leafValues>
            -5.2908558398485184e-02 1.9905890524387360e-01</leafValues></_>
        <_>
          <internalNodes>
            0 -1 522 1.5586802735924721e-02</internalNodes>
          <leafValues>
            -4.8409849405288696e-02 2.1252372860908508e-01</leafValues></_>
        <_>
          <internalNodes>
            0 -1 504 2.1975105628371239e-02</internalNodes>
          <leafValues>
            -9.6428282558917999e-02 1.3347668945789337e-01</leafValues></_>
        <_>
          <internalNodes>
            0 -1 141 -2.9484484344720840e-02</internalNodes>
          <leafValues>
            2.7285593748092651e-01 -3.5176202654838562e-02</leafValues></_>
        <_>
          <internalNodes>
            0 -1 517 -4.4872490689158440e-03</internalNodes>
          <leafValues>
            2.3141561448574066e-01 -4.7657672315835953e-02</leafValues></_>
        <_>
          <internalNodes>
            0 -1 263 -7.7044039964675903e-02</internalNodes>
          <leafValues>
            -2.4228337407112122e-01 4.3644972145557404e-02</leafValues></_>
        <_>
          <internalNodes>
            0 -1 183 5.5336011573672295e-03</internalNodes>
          <leafValues>
            -8.1716932356357574e-02 1.4166373014450073e-01</leafValues></_>
        <_>
          <internalNodes>
            0 -1 519 5.7108402252197266e-03</internalNodes>
          <leafValues>
            2.8568955138325691e-02 -4.5748803019523621e-01</leafValues></_>
        <_>
          <internalNodes>
            0 -1 680 -7.6052611693739891e-03</internalNodes>
          <leafValues>
            -6.2932646274566650e-01 1.5600116923451424e-02</leafValues></_>
        <_>
          <internalNodes>
            0 -1 496 -2.5768745690584183e-02</internalNodes>
          <leafValues>
            -3.8468894362449646e-01 2.4978987872600555e-02</leafValues></_>
        <_>
          <internalNodes>
            0 -1 783 -4.6135336160659790e-03</internalNodes>
          <leafValues>
            -4.0428829193115234e-01 2.3468907922506332e-02</leafValues></_>
        <_>
          <internalNodes>
            0 -1 576 -8.4879947826266289e-03</internalNodes>
          <leafValues>
            2.4957257509231567e-01 -4.3172191828489304e-02</leafValues></_>
        <_>
          <internalNodes>
            0 -1 184 8.9605368673801422e-02</internalNodes>
          <leafValues>
            3.2774783670902252e-02 -3.2642617821693420e-01</leafValues></_>
        <_>
          <internalNodes>
            0 -1 314 2.0868014544248581e-03</internalNodes>
          <leafValues>
            -7.7745817601680756e-02 1.4663493633270264e-01</leafValues></_>
        <_>
          <internalNodes>
            0 -1 466 1.4325857628136873e-03</internalNodes>
          <leafValues>
            -7.3970079421997070e-02 1.5944074094295502e-01</leafValues></_>
        <_>
          <internalNodes>
            0 -1 423 -2.2517435252666473e-02</internalNodes>
          <leafValues>
            -4.6336352825164795e-01 2.9083885252475739e-02</leafValues></_>
        <_>
          <internalNodes>
            0 -1 556 5.2962955087423325e-03</internalNodes>
          <leafValues>
            -3.7516109645366669e-02 2.8423410654067993e-01</leafValues></_>
        <_>
          <internalNodes>
            0 -1 785 -4.2133294045925140e-03</internalNodes>
          <leafValues>
            -3.5525780916213989e-01 2.8981592506170273e-02</leafValues></_>
        <_>
          <internalNodes>
            0 -1 788 -3.6580180749297142e-03</internalNodes>
          <leafValues>
            1.3769580423831940e-01 -7.6505348086357117e-02</leafValues></_>
        <_>
          <internalNodes>
            0 -1 681 -6.3872644677758217e-03</internalNodes>
          <leafValues>
            2.2898927330970764e-01 -5.9652157127857208e-02</leafValues></_>
        <_>
          <internalNodes>
            0 -1 710 -1.2878051027655602e-02</internalNodes>
          <leafValues>
            -5.8595991134643555e-01 1.6419747844338417e-02</leafValues></_>
        <_>
          <internalNodes>
            0 -1 579 8.3333533257246017e-04</internalNodes>
          <leafValues>
            -7.5845420360565186e-02 1.3493083417415619e-01</leafValues></_>
        <_>
          <internalNodes>
            0 -1 579 -8.2807254511862993e-04</internalNodes>
          <leafValues>
            1.7541342973709106e-01 -6.6016294062137604e-02</leafValues></_>
        <_>
          <internalNodes>
            0 -1 513 -5.6827943772077560e-03</internalNodes>
          <leafValues>
            -6.6328513622283936e-01 1.6315151005983353e-02</leafValues></_>
        <_>
          <internalNodes>
            0 -1 778 -6.9110747426748276e-04</internalNodes>
          <leafValues>
            1.4165806770324707e-01 -6.9192051887512207e-02</leafValues></_>
        <_>
          <internalNodes>
            0 -1 777 -7.6129951048642397e-04</internalNodes>
          <leafValues>
            1.4434826374053955e-01 -6.5991699695587158e-02</leafValues></_>
        <_>
          <internalNodes>
            0 -1 775 -3.1534463167190552e-02</internalNodes>
          <leafValues>
            -4.5742323994636536e-01 2.7124587446451187e-02</leafValues></_>
        <_>
          <internalNodes>
            0 -1 750 -2.1940009668469429e-02</internalNodes>
          <leafValues>
            -6.3773864507675171e-01 1.2435588054358959e-02</leafValues></_>
        <_>
          <internalNodes>
            0 -1 800 -4.4250763021409512e-03</internalNodes>
          <leafValues>
            -5.1224833726882935e-01 1.7521727830171585e-02</leafValues></_>
        <_>
          <internalNodes>
            0 -1 460 -6.6016498021781445e-03</internalNodes>
          <leafValues>
            -4.8603442311286926e-01 1.8012681975960732e-02</leafValues></_>
        <_>
          <internalNodes>
            0 -1 188 -2.6363243814557791e-03</internalNodes>
          <leafValues>
            1.4860969781875610e-01 -6.6668957471847534e-02</leafValues></_>
        <_>
          <internalNodes>
            0 -1 193 2.4625342339277267e-03</internalNodes>
          <leafValues>
            -7.6517231762409210e-02 1.5944716334342957e-01</leafValues></_>
        <_>
          <internalNodes>
            0 -1 239 8.4055960178375244e-03</internalNodes>
          <leafValues>
            2.0332260057330132e-02 -5.0878185033798218e-01</leafValues></_>
        <_>
          <internalNodes>
            0 -1 288 1.5534446574747562e-03</internalNodes>
          <leafValues>
            -7.5611419975757599e-02 1.4383172988891602e-01</leafValues></_>
        <_>
          <internalNodes>
            0 -1 396 1.8427567556500435e-03</internalNodes>
          <leafValues>
            -6.6353313624858856e-02 1.4830666780471802e-01</leafValues></_>
        <_>
          <internalNodes>
            0 -1 525 1.8359873443841934e-02</internalNodes>
          <leafValues>
            2.3444695398211479e-02 -4.1583853960037231e-01</leafValues></_>
        <_>
          <internalNodes>
            0 -1 486 -1.0855166614055634e-01</internalNodes>
          <leafValues>
            -5.3657829761505127e-01 1.6943216323852539e-02</leafValues></_>
        <_>
          <internalNodes>
            0 -1 798 -6.0323714278638363e-03</internalNodes>
          <leafValues>
            -5.1249074935913086e-01 1.8707681447267532e-02</leafValues></_>
        <_>
          <internalNodes>
            0 -1 346 9.9578304216265678e-03</internalNodes>
          <leafValues>
            -4.2286101728677750e-02 2.4362047016620636e-01</leafValues></_>
        <_>
          <internalNodes>
            0 -1 42 -3.1903753988444805e-03</internalNodes>
          <leafValues>
            -1.7562057077884674e-01 5.5528756231069565e-02</leafValues></_>
        <_>
          <internalNodes>
            0 -1 835 4.0852990932762623e-03</internalNodes>
          <leafValues>
            2.0944071933627129e-02 -4.5120230317115784e-01</leafValues></_>
        <_>
          <internalNodes>
            0 -1 394 -2.3479121737182140e-03</internalNodes>
          <leafValues>
            1.7437180876731873e-01 -5.5933691561222076e-02</leafValues></_>
        <_>
          <internalNodes>
            0 -1 70 1.7512874677777290e-02</internalNodes>
          <leafValues>
            1.5709269791841507e-02 -5.7130002975463867e-01</leafValues></_>
        <_>
          <internalNodes>
            0 -1 717 -8.4983604028820992e-03</internalNodes>
          <leafValues>
            1.6458894312381744e-01 -5.6621875613927841e-02</leafValues></_>
        <_>
          <internalNodes>
            0 -1 557 -4.6426653861999512e-03</internalNodes>
          <leafValues>
            1.1396361887454987e-01 -1.0749371349811554e-01</leafValues></_>
        <_>
          <internalNodes>
            0 -1 424 -1.1767121031880379e-02</internalNodes>
          <leafValues>
            3.4304556250572205e-01 -2.9708087444305420e-02</leafValues></_>
        <_>
          <internalNodes>
            0 -1 159 -6.0848236083984375e-02</internalNodes>
          <leafValues>
            -2.0566569268703461e-01 5.0215970724821091e-02</leafValues></_>
        <_>
          <internalNodes>
            0 -1 58 3.2359618693590164e-02</internalNodes>
          <leafValues>
            -7.7433146536350250e-02 1.4889746904373169e-01</leafValues></_>
        <_>
          <internalNodes>
            0 -1 165 -2.6087621226906776e-03</internalNodes>
          <leafValues>
            1.8481542170047760e-01 -5.5885650217533112e-02</leafValues></_>
        <_>
          <internalNodes>
            0 -1 166 3.2925032428465784e-04</internalNodes>
          <leafValues>
            -8.7689034640789032e-02 1.2806667387485504e-01</leafValues></_>
        <_>
          <internalNodes>
            0 -1 268 5.8937396854162216e-02</internalNodes>
          <leafValues>
            1.3238398358225822e-02 -6.5752309560775757e-01</leafValues></_>
        <_>
          <internalNodes>
            0 -1 278 1.5044843778014183e-02</internalNodes>
          <leafValues>
            -3.7409551441669464e-02 2.8457254171371460e-01</leafValues></_>
        <_>
          <internalNodes>
            0 -1 149 -5.0523329526185989e-02</internalNodes>
          <leafValues>
            -5.0655817985534668e-01 1.8285190686583519e-02</leafValues></_>
        <_>
          <internalNodes>
            0 -1 715 -4.6750972978770733e-03</internalNodes>
          <leafValues>
            1.4436765015125275e-01 -6.8827256560325623e-02</leafValues></_>
        <_>
          <internalNodes>
            0 -1 713 -2.7440598234534264e-02</internalNodes>
          <leafValues>
            -5.3455495834350586e-01 2.3958064615726471e-02</leafValues></_>
        <_>
          <internalNodes>
            0 -1 383 -5.8825528249144554e-03</internalNodes>
          <leafValues>
            -7.1169620752334595e-01 1.1605693027377129e-02</leafValues></_>
        <_>
          <internalNodes>
            0 -1 321 5.2109308540821075e-02</internalNodes>
          <leafValues>
            2.5849508121609688e-02 -3.6489528417587280e-01</leafValues></_>
        <_>
          <internalNodes>
            0 -1 146 1.9626724533736706e-03</internalNodes>
          <leafValues>
            -7.7592171728610992e-02 1.4094167947769165e-01</leafValues></_>
        <_>
          <internalNodes>
            0 -1 106 -2.6356868911534548e-03</internalNodes>
          <leafValues>
            1.2598143517971039e-01 -8.2177519798278809e-02</leafValues></_>
        <_>
          <internalNodes>
            0 -1 332 -5.6372028775513172e-03</internalNodes>
          <leafValues>
            -7.1219164133071899e-01 1.3856544159352779e-02</leafValues></_>
        <_>
          <internalNodes>
            0 -1 94 1.0136417113244534e-03</internalNodes>
          <leafValues>
            5.8638397604227066e-02 -1.7678929865360260e-01</leafValues></_>
        <_>
          <internalNodes>
            0 -1 837 -1.9947080872952938e-03</internalNodes>
          <leafValues>
            -2.6448154449462891e-01 3.9112232625484467e-02</leafValues></_>
        <_>
          <internalNodes>
            0 -1 475 8.8645203504711390e-04</internalNodes>
          <leafValues>
            -6.9758646190166473e-02 1.3906365633010864e-01</leafValues></_>
        <_>
          <internalNodes>
            0 -1 761 -4.6164849773049355e-03</internalNodes>
          <leafValues>
            -7.1423429250717163e-01 1.2141834013164043e-02</leafValues></_>
        <_>
          <internalNodes>
            0 -1 767 -6.4663193188607693e-04</internalNodes>
          <leafValues>
            1.3174431025981903e-01 -7.7144302427768707e-02</leafValues></_>
        <_>
          <internalNodes>
            0 -1 725 7.3356293141841888e-03</internalNodes>
          <leafValues>
            1.8178991973400116e-02 -5.7765430212020874e-01</leafValues></_>
        <_>
          <internalNodes>
            0 -1 871 -1.3940299395471811e-03</internalNodes>
          <leafValues>
            1.6985927522182465e-01 -5.9723582118749619e-02</leafValues></_>
        <_>
          <internalNodes>
            0 -1 872 3.7191188894212246e-03</internalNodes>
          <leafValues>
            -4.9245823174715042e-02 2.3509946465492249e-01</leafValues></_>
        <_>
          <internalNodes>
            0 -1 435 -1.2436497490853071e-03</internalNodes>
          <leafValues>
            1.2806808948516846e-01 -7.4586682021617889e-02</leafValues></_>
        <_>
          <internalNodes>
            0 -1 342 -1.2432631105184555e-01</internalNodes>
          <leafValues>
            5.5599802732467651e-01 -1.8155012279748917e-02</leafValues></_></weakClassifiers></_>
    <!-- stage 4 -->
    <_>
      <maxWeakCount>100</maxWeakCount>
      <stageThreshold>-1.0922482013702393e+00</stageThreshold>
      <weakClassifiers>
        <_>
          <internalNodes>
            0 -1 97 -9.9898278713226318e-02</internalNodes>
          <leafValues>
            3.4447538852691650e-01 -7.5360551476478577e-02</leafValues></_>
        <_>
          <internalNodes>
            0 -1 520 1.7139018746092916e-03</internalNodes>
          <leafValues>
            -7.7633112668991089e-02 1.9961814582347870e-01</leafValues></_>
        <_>
          <internalNodes>
            0 -1 520 -9.5746328588575125e-04</internalNodes>
          <leafValues>
            1.5518893301486969e-01 -1.1454524844884872e-01</leafValues></_>
        <_>
          <internalNodes>
            0 -1 787 2.6536993682384491e-03</internalNodes>
          <leafValues>
            -7.0504300296306610e-02 1.9865633547306061e-01</leafValues></_>
        <_>
          <internalNodes>
            0 -1 35 -5.0337081775069237e-03</internalNodes>
          <leafValues>
            2.2092124819755554e-01 -6.2622398138046265e-02</leafValues></_>
        <_>
          <internalNodes>
            0 -1 488 -2.7708166837692261e-01</internalNodes>
          <leafValues>
            5.0617474317550659e-01 -3.5324398428201675e-02</leafValues></_>
        <_>
          <internalNodes>
            0 -1 276 -2.1176761947572231e-03</internalNodes>
          <leafValues>
            1.8884876370429993e-01 -6.0574397444725037e-02</leafValues></_>
        <_>
          <internalNodes>
            0 -1 59 -5.0661519169807434e-02</internalNodes>
          <leafValues>
            4.9687716364860535e-01 -1.4963384717702866e-02</leafValues></_>
        <_>
          <internalNodes>
            0 -1 394 1.8823335412889719e-03</internalNodes>
          <leafValues>
            -8.2769833505153656e-02 1.7843632400035858e-01</leafValues></_>
        <_>
          <internalNodes>
            0 -1 34 -1.1252176016569138e-02</internalNodes>
          <leafValues>
            1.4056727290153503e-01 -8.6307577788829803e-02</leafValues></_>
        <_>
          <internalNodes>
            0 -1 828 5.3769780788570642e-04</internalNodes>
          <leafValues>
            -5.9831328690052032e-02 1.7203767597675323e-01</leafValues></_>
        <_>
          <internalNodes>
            0 -1 793 -1.2540823081508279e-03</internalNodes>
          <leafValues>
            1.3437479734420776e-01 -1.0479345917701721e-01</leafValues></_>
        <_>
          <internalNodes>
            0 -1 508 -1.8497426062822342e-02</internalNodes>
          <leafValues>
            1.9805680215358734e-01 -4.5984070748090744e-02</leafValues></_>
        <_>
          <internalNodes>
            0 -1 36 9.7011402249336243e-03</internalNodes>
          <leafValues>
            -5.5701859295368195e-02 1.9801443815231323e-01</leafValues></_>
        <_>
          <internalNodes>
            0 -1 237 -6.8803146481513977e-02</internalNodes>
          <leafValues>
            -2.9734414815902710e-01 3.9016775786876678e-02</leafValues></_>
        <_>
          <internalNodes>
            0 -1 695 1.5899166464805603e-03</internalNodes>
          <leafValues>
            -7.2555638849735260e-02 1.5044042468070984e-01</leafValues></_>
        <_>
          <internalNodes>
            0 -1 543 -2.6695609092712402e-02</internalNodes>
          <leafValues>
            -3.9148736000061035e-01 2.9811657965183258e-02</leafValues></_>
        <_>
          <internalNodes>
            0 -1 402 -1.5868328511714935e-02</internalNodes>
          <leafValues>
            -3.2131245732307434e-01 2.8756098821759224e-02</leafValues></_>
        <_>
          <internalNodes>
            0 -1 700 -6.7310378653928638e-04</internalNodes>
          <leafValues>
            1.5401665866374969e-01 -8.1527158617973328e-02</leafValues></_>
        <_>
          <internalNodes>
            0 -1 356 -3.0323216691613197e-02</internalNodes>
          <leafValues>
            3.1073230504989624e-01 -2.8820930048823357e-02</leafValues></_>
        <_>
          <internalNodes>
            0 -1 203 1.1045436374843121e-02</internalNodes>
          <leafValues>
            -3.0162809416651726e-02 3.0966395139694214e-01</leafValues></_>
        <_>
          <internalNodes>
            0 -1 647 -1.7454831395298243e-03</internalNodes>
          <leafValues>
            1.7596247792243958e-01 -6.3982039690017700e-02</leafValues></_>
        <_>
          <internalNodes>
            0 -1 0 -7.9750490840524435e-04</internalNodes>
          <leafValues>
            -2.0711266994476318e-01 5.6888788938522339e-02</leafValues></_>
        <_>
          <internalNodes>
            0 -1 746 3.7125524133443832e-02</internalNodes>
          <leafValues>
            3.1078757718205452e-02 -3.6766323447227478e-01</leafValues></_>
        <_>
          <internalNodes>
            0 -1 667 3.8057526107877493e-03</internalNodes>
          <leafValues>
            -8.5988298058509827e-02 1.5068495273590088e-01</leafValues></_>
        <_>
          <internalNodes>
            0 -1 378 -6.3530663028359413e-03</internalNodes>
          <leafValues>
            -4.5142340660095215e-01 2.5348842144012451e-02</leafValues></_>
        <_>
          <internalNodes>
            0 -1 308 -1.0859907604753971e-02</internalNodes>
          <leafValues>
            1.8355938792228699e-01 -6.1069648712873459e-02</leafValues></_>
        <_>
          <internalNodes>
            0 -1 412 -2.0104588940739632e-02</internalNodes>
          <leafValues>
            2.0743925869464874e-01 -5.3233109414577484e-02</leafValues></_>
        <_>
          <internalNodes>
            0 -1 608 1.0970693547278643e-03</internalNodes>
          <leafValues>
            -7.5645804405212402e-02 1.5235260128974915e-01</leafValues></_>
        <_>
          <internalNodes>
            0 -1 530 -1.5496543049812317e-01</internalNodes>
          <leafValues>
            2.3260618746280670e-01 -5.2904967218637466e-02</leafValues></_>
        <_>
          <internalNodes>
            0 -1 171 -2.1418273448944092e-02</internalNodes>
          <leafValues>
            -5.0095927715301514e-01 2.4267446249723434e-02</leafValues></_>
        <_>
          <internalNodes>
            0 -1 352 4.1959382360801101e-04</internalNodes>
          <leafValues>
            -7.5217679142951965e-02 1.3456198573112488e-01</leafValues></_>
        <_>
          <internalNodes>
            0 -1 335 4.5396454632282257e-02</internalNodes>
          <leafValues>
            4.1697781533002853e-02 -3.2103520631790161e-01</leafValues></_>
        <_>
          <internalNodes>
            0 -1 260 2.0999759435653687e-02</internalNodes>
          <leafValues>
            2.1143471822142601e-02 -4.3189844489097595e-01</leafValues></_>
        <_>
          <internalNodes>
            0 -1 81 -1.3000360922887921e-03</internalNodes>
          <leafValues>
            1.4696517586708069e-01 -7.1885548532009125e-02</leafValues></_>
        <_>
          <internalNodes>
            0 -1 261 -1.6160927712917328e-02</internalNodes>
          <leafValues>
            -4.0070185065269470e-01 2.8363995254039764e-02</leafValues></_>
        <_>
          <internalNodes>
            0 -1 50 7.5407149270176888e-03</internalNodes>
          <leafValues>
            5.8283809572458267e-02 -1.7077994346618652e-01</leafValues></_>
        <_>
          <internalNodes>
            0 -1 109 2.1422756835818291e-03</internalNodes>
          <leafValues>
            -7.2468325495719910e-02 1.4363442361354828e-01</leafValues></_>
        <_>
          <internalNodes>
            0 -1 206 -1.0227136313915253e-02</internalNodes>
          <leafValues>
            1.9639822840690613e-01 -5.2840922027826309e-02</leafValues></_>
        <_>
          <internalNodes>
            0 -1 831 1.2638203334063292e-03</internalNodes>
          <leafValues>
            -6.9150865077972412e-02 1.4485873281955719e-01</leafValues></_>
        <_>
          <internalNodes>
            0 -1 849 -4.4364868663251400e-03</internalNodes>
          <leafValues>
            -4.5664364099502563e-01 2.3649241775274277e-02</leafValues></_>
        <_>
          <internalNodes>
            0 -1 163 -1.8768850713968277e-02</internalNodes>
          <leafValues>
            -1.4192348718643188e-01 7.0787578821182251e-02</leafValues></_>
        <_>
          <internalNodes>
            0 -1 411 8.6883917450904846e-02</internalNodes>
          <leafValues>
            2.5985149666666985e-02 -4.0522924065589905e-01</leafValues></_>
        <_>
          <internalNodes>
            0 -1 546 -5.5430182255804539e-03</internalNodes>
          <leafValues>
            -6.9074541330337524e-01 1.3154322281479836e-02</leafValues></_>
        <_>
          <internalNodes>
            0 -1 49 9.5716130454093218e-04</internalNodes>
          <leafValues>
            6.9782018661499023e-02 -1.4453925192356110e-01</leafValues></_>
        <_>
          <internalNodes>
            0 -1 649 -9.5657986821606755e-04</internalNodes>
          <leafValues>
            1.2956528365612030e-01 -7.6555512845516205e-02</leafValues></_>
        <_>
          <internalNodes>
            0 -1 514 7.4879783205688000e-03</internalNodes>
          <leafValues>
            -6.9197721779346466e-02 1.4365945756435394e-01</leafValues></_>
        <_>
          <internalNodes>
            0 -1 577 -1.8165759742259979e-02</internalNodes>
          <leafValues>
            -3.8794320821762085e-01 2.7700159698724747e-02</leafValues></_>
        <_>
          <internalNodes>
            0 -1 456 -6.4058736898005009e-03</internalNodes>
          <leafValues>
            1.6280534863471985e-01 -6.0164131224155426e-02</leafValues></_>
        <_>
          <internalNodes>
            0 -1 267 9.7427330911159515e-04</internalNodes>
          <leafValues>
            -7.6207123696804047e-02 1.2815755605697632e-01</leafValues></_>
        <_>
          <internalNodes>
            0 -1 816 -2.4526051711291075e-03</internalNodes>
          <leafValues>
            1.5075837075710297e-01 -6.3850581645965576e-02</leafValues></_>
        <_>
          <internalNodes>
            0 -1 581 -1.2067198753356934e-02</internalNodes>
          <leafValues>
            -6.3475567102432251e-01 1.4565424993634224e-02</leafValues></_>
        <_>
          <internalNodes>
            0 -1 636 1.7636814154684544e-03</internalNodes>
          <leafValues>
            -7.2071589529514313e-02 1.4923900365829468e-01</leafValues></_>
        <_>
          <internalNodes>
            0 -1 427 1.3133971020579338e-02</internalNodes>
          <leafValues>
            -5.5027861148118973e-02 1.9628918170928955e-01</leafValues></_>
        <_>
          <internalNodes>
            0 -1 673 7.8622519504278898e-04</internalNodes>
          <leafValues>
            -8.0251194536685944e-02 1.3921564817428589e-01</leafValues></_>
        <_>
          <internalNodes>
            0 -1 621 2.6507559232413769e-03</internalNodes>
          <leafValues>
            -5.3815033286809921e-02 1.8152540922164917e-01</leafValues></_>
        <_>
          <internalNodes>
            0 -1 675 1.1100512929260731e-02</internalNodes>
          <leafValues>
            2.4454660713672638e-02 -4.6685451269149780e-01</leafValues></_>
        <_>
          <internalNodes>
            0 -1 781 -7.9903062433004379e-03</internalNodes>
          <leafValues>
            -4.4103384017944336e-01 2.0150776952505112e-02</leafValues></_>
        <_>
          <internalNodes>
            0 -1 468 -3.1668948940932751e-04</internalNodes>
          <leafValues>
            1.0567942261695862e-01 -9.4452470541000366e-02</leafValues></_>
        <_>
          <internalNodes>
            0 -1 117 -3.1949244439601898e-02</internalNodes>
          <leafValues>
            3.6278334259986877e-01 -2.8123637661337852e-02</leafValues></_>
        <_>
          <internalNodes>
            0 -1 214 3.5464398562908173e-02</internalNodes>
          <leafValues>
            2.1891968324780464e-02 -4.9163976311683655e-01</leafValues></_>
        <_>
          <internalNodes>
            0 -1 847 -9.6017512260004878e-04</internalNodes>
          <leafValues>
            1.6039302945137024e-01 -6.3561528921127319e-02</leafValues></_>
        <_>
          <internalNodes>
            0 -1 345 -1.8939781002700329e-03</internalNodes>
          <leafValues>
            1.5193863213062286e-01 -6.3177689909934998e-02</leafValues></_>
        <_>
          <internalNodes>
            0 -1 277 5.5441884323954582e-03</internalNodes>
          <leafValues>
            -7.3623381555080414e-02 1.5841048955917358e-01</leafValues></_>
        <_>
          <internalNodes>
            0 -1 219 2.1283350884914398e-02</internalNodes>
          <leafValues>
            3.6016047000885010e-02 -2.7611073851585388e-01</leafValues></_>
        <_>
          <internalNodes>
            0 -1 877 1.9254309590905905e-03</internalNodes>
          <leafValues>
            6.9308929145336151e-02 -1.4069409668445587e-01</leafValues></_>
        <_>
          <internalNodes>
            0 -1 875 -1.9863396883010864e-03</internalNodes>
          <leafValues>
            -1.5336915850639343e-01 6.9602817296981812e-02</leafValues></_>
        <_>
          <internalNodes>
            0 -1 248 -1.1892217397689819e-01</internalNodes>
          <leafValues>
            -3.9487555623054504e-01 2.1943349391222000e-02</leafValues></_>
        <_>
          <internalNodes>
            0 -1 824 1.4977157115936279e-02</internalNodes>
          <leafValues>
            1.2855594977736473e-02 -6.9199621677398682e-01</leafValues></_>
        <_>
          <internalNodes>
            0 -1 376 3.8212880492210388e-02</internalNodes>
          <leafValues>
            8.1624444574117661e-03 -9.3811291456222534e-01</leafValues></_>
        <_>
          <internalNodes>
            0 -1 64 1.0129763185977936e-01</internalNodes>
          <leafValues>
            4.2741559445858002e-02 -2.2201448678970337e-01</leafValues></_>
        <_>
          <internalNodes>
            0 -1 641 2.8694288805127144e-02</internalNodes>
          <leafValues>
            1.3515043072402477e-02 -6.3298380374908447e-01</leafValues></_>
        <_>
          <internalNodes>
            0 -1 644 -3.2312393188476563e-02</internalNodes>
          <leafValues>
            -3.9020553231239319e-01 2.2705284878611565e-02</leafValues></_>
        <_>
          <internalNodes>
            0 -1 300 5.4481963161379099e-04</internalNodes>
          <leafValues>
            -7.3400057852268219e-02 1.2643052637577057e-01</leafValues></_>
        <_>
          <internalNodes>
            0 -1 297 -1.7030392773449421e-03</internalNodes>
          <leafValues>
            1.2439768761396408e-01 -8.1063993275165558e-02</leafValues></_>
        <_>
          <internalNodes>
            0 -1 791 6.6811260767281055e-03</internalNodes>
          <leafValues>
            1.3869395479559898e-02 -7.0473003387451172e-01</leafValues></_>
        <_>
          <internalNodes>
            0 -1 205 2.1554742008447647e-02</internalNodes>
          <leafValues>
            2.2219706326723099e-02 -3.7258690595626831e-01</leafValues></_>
        <_>
          <internalNodes>
            0 -1 158 -2.0179427228868008e-03</internalNodes>
          <leafValues>
            1.2321522086858749e-01 -7.6608881354331970e-02</leafValues></_>
        <_>
          <internalNodes>
            0 -1 212 -2.7501219883561134e-03</internalNodes>
          <leafValues>
            1.8609048426151276e-01 -5.8038994669914246e-02</leafValues></_>
        <_>
          <internalNodes>
            0 -1 119 -9.4312340021133423e-02</internalNodes>
          <leafValues>
            -6.3687694072723389e-01 1.6852626577019691e-02</leafValues></_>
        <_>
          <internalNodes>
            0 -1 319 6.0497717931866646e-03</internalNodes>
          <leafValues>
            1.0240511968731880e-02 -7.5470566749572754e-01</leafValues></_>
        <_>
          <internalNodes>
            0 -1 721 1.9768725614994764e-03</internalNodes>
          <leafValues>
            -7.6086796820163727e-02 1.1628895252943039e-01</leafValues></_>
        <_>
          <internalNodes>
            0 -1 701 -3.1540796160697937e-02</internalNodes>
          <leafValues>
            -4.7380697727203369e-01 2.1973481401801109e-02</leafValues></_>
        <_>
          <internalNodes>
            0 -1 615 -1.3834800571203232e-02</internalNodes>
          <leafValues>
            1.8933601677417755e-01 -5.1492143422365189e-02</leafValues></_>
        <_>
          <internalNodes>
            0 -1 462 1.3530319556593895e-03</internalNodes>
          <leafValues>
            -5.6167468428611755e-02 1.5796501934528351e-01</leafValues></_>
        <_>
          <internalNodes>
            0 -1 142 -9.4458989799022675e-02</internalNodes>
          <leafValues>
            4.2104443907737732e-01 -2.1995268762111664e-02</leafValues></_>
        <_>
          <internalNodes>
            0 -1 779 -6.4149419777095318e-03</internalNodes>
          <leafValues>
            -3.1956544518470764e-01 2.8379885479807854e-02</leafValues></_>
        <_>
          <internalNodes>
            0 -1 151 6.1184871941804886e-02</internalNodes>
          <leafValues>
            7.3374663479626179e-03 -9.4837397336959839e-01</leafValues></_>
        <_>
          <internalNodes>
            0 -1 292 7.7851244714111090e-04</internalNodes>
          <leafValues>
            -7.3315106332302094e-02 1.1934181302785873e-01</leafValues></_>
        <_>
          <internalNodes>
            0 -1 481 7.7531617134809494e-03</internalNodes>
          <leafValues>
            1.6428597271442413e-02 -5.7957744598388672e-01</leafValues></_>
        <_>
          <internalNodes>
            0 -1 234 -1.4876215718686581e-03</internalNodes>
          <leafValues>
            1.2363439053297043e-01 -7.1610674262046814e-02</leafValues></_>
        <_>
          <internalNodes>
            0 -1 840 -5.7878550142049789e-02</internalNodes>
          <leafValues>
            4.8295965790748596e-01 -1.7310973256826401e-02</leafValues></_>
        <_>
          <internalNodes>
            0 -1 40 -1.1003734171390533e-01</internalNodes>
          <leafValues>
            6.2028992176055908e-01 -1.4942208305001259e-02</leafValues></_>
        <_>
          <internalNodes>
            0 -1 391 2.9329147655516863e-03</internalNodes>
          <leafValues>
            -5.8681413531303406e-02 1.6447024047374725e-01</leafValues></_>
        <_>
          <internalNodes>
            0 -1 527 1.6988429706543684e-03</internalNodes>
          <leafValues>
            -6.5590493381023407e-02 1.4410623908042908e-01</leafValues></_>
        <_>
          <internalNodes>
            0 -1 377 3.9677121676504612e-03</internalNodes>
          <leafValues>
            -5.2941642701625824e-02 1.7048655450344086e-01</leafValues></_>
        <_>
          <internalNodes>
            0 -1 803 3.0935360118746758e-03</internalNodes>
          <leafValues>
            -7.0146173238754272e-02 1.2584325671195984e-01</leafValues></_>
        <_>
          <internalNodes>
            0 -1 782 -4.8593757674098015e-03</internalNodes>
          <leafValues>
            -5.5732947587966919e-01 1.7924493178725243e-02</leafValues></_>
        <_>
          <internalNodes>
            0 -1 624 1.7144130542874336e-02</internalNodes>
          <leafValues>
            1.1287867091596127e-02 -6.4970052242279053e-01</leafValues></_>
        <_>
          <internalNodes>
            0 -1 459 -1.3975808024406433e-01</internalNodes>
          <leafValues>
            -3.9317581057548523e-01 2.0067818462848663e-02</leafValues></_></weakClassifiers></_>
    <!-- stage 5 -->
    <_>
      <maxWeakCount>100</maxWeakCount>
      <stageThreshold>-1.0170515775680542e+00</stageThreshold>
      <weakClassifiers>
        <_>
          <internalNodes>
            0 -1 820 3.3181011676788330e-02</internalNodes>
          <leafValues>
            -5.7943206280469894e-02 3.8324871659278870e-01</leafValues></_>
        <_>
          <internalNodes>
            0 -1 98 -2.2014960646629333e-01</internalNodes>
          <leafValues>
            1.7000553011894226e-01 -8.4178924560546875e-02</leafValues></_>
        <_>
          <internalNodes>
            0 -1 548 5.1775414496660233e-02</internalNodes>
          <leafValues>
            2.9743628576397896e-02 -2.5747576355934143e-01</leafValues></_>
        <_>
          <internalNodes>
            0 -1 850 -3.1641824170947075e-03</internalNodes>
          <leafValues>
            1.9592571258544922e-01 -5.8075577020645142e-02</leafValues></_>
        <_>
          <internalNodes>
            0 -1 622 1.2191075831651688e-02</internalNodes>
          <leafValues>
            -5.7352915406227112e-02 2.2405293583869934e-01</leafValues></_>
        <_>
          <internalNodes>
            0 -1 727 1.1300168931484222e-02</internalNodes>
          <leafValues>
            -1.0516973212361336e-02 3.1256127357482910e-01</leafValues></_>
        <_>
          <internalNodes>
            0 -1 511 1.0472540743649006e-02</internalNodes>
          <leafValues>
            -7.7422417700290680e-02 2.0680147409439087e-01</leafValues></_>
        <_>
          <internalNodes>
            0 -1 679 1.7244011163711548e-02</internalNodes>
          <leafValues>
            1.3941809535026550e-02 -4.6539455652236938e-01</leafValues></_>
        <_>
          <internalNodes>
            0 -1 730 1.2474072864279151e-03</internalNodes>
          <leafValues>
            1.0550343245267868e-01 -1.2792430818080902e-01</leafValues></_>
        <_>
          <internalNodes>
            0 -1 173 -6.9364514201879501e-03</internalNodes>
          <leafValues>
            -4.2708247900009155e-01 3.3341918606311083e-03</leafValues></_>
        <_>
          <internalNodes>
            0 -1 131 1.7971817869693041e-03</internalNodes>
          <leafValues>
            -4.2974192649126053e-02 1.9939278066158295e-01</leafValues></_>
        <_>
          <internalNodes>
            0 -1 795 -2.0793853327631950e-03</internalNodes>
          <leafValues>
            1.7135727405548096e-01 -7.3786593973636627e-02</leafValues></_>
        <_>
          <internalNodes>
            0 -1 60 -8.4879666566848755e-02</internalNodes>
          <leafValues>
            3.9268052577972412e-01 -1.7190860584378242e-02</leafValues></_>
        <_>
          <internalNodes>
            0 -1 540 5.0707288086414337e-02</internalNodes>
          <leafValues>
            -7.5129076838493347e-02 1.7254042625427246e-01</leafValues></_>
        <_>
          <internalNodes>
            0 -1 196 7.2839763015508652e-03</internalNodes>
          <leafValues>
            -4.2177543044090271e-02 2.1576412022113800e-01</leafValues></_>
        <_>
          <internalNodes>
            0 -1 128 -2.0769802853465080e-02</internalNodes>
          <leafValues>
            1.5568086504936218e-01 -8.5976094007492065e-02</leafValues></_>
        <_>
          <internalNodes>
            0 -1 114 1.6047874232754111e-03</internalNodes>
          <leafValues>
            -1.2003852427005768e-01 1.0269601643085480e-01</leafValues></_>
        <_>
          <internalNodes>
            0 -1 80 5.1803085952997208e-02</internalNodes>
          <leafValues>
            5.3719915449619293e-02 -2.2063674032688141e-01</leafValues></_>
        <_>
          <internalNodes>
            0 -1 129 1.6759023070335388e-02</internalNodes>
          <leafValues>
            -7.9706646502017975e-02 1.4558178186416626e-01</leafValues></_>
        <_>
          <internalNodes>
            0 -1 632 -1.4262173324823380e-02</internalNodes>
          <leafValues>
            2.0611952245235443e-01 -5.2510157227516174e-02</leafValues></_>
        <_>
          <internalNodes>
            0 -1 137 1.5677297487854958e-03</internalNodes>
          <leafValues>
            4.9430456012487411e-02 -2.2449424862861633e-01</leafValues></_>
        <_>
          <internalNodes>
            0 -1 425 -9.8066497594118118e-04</internalNodes>
          <leafValues>
            1.1005803942680359e-01 -9.2379234731197357e-02</leafValues></_>
        <_>
          <internalNodes>
            0 -1 552 -6.7665204405784607e-03</internalNodes>
          <leafValues>
            -8.9184743165969849e-01 2.6444138959050179e-02</leafValues></_>
        <_>
          <internalNodes>
            0 -1 787 2.6533456984907389e-03</internalNodes>
          <leafValues>
            -7.1149736642837524e-02 1.5268884599208832e-01</leafValues></_>
        <_>
          <internalNodes>
            0 -1 762 5.1160985603928566e-03</internalNodes>
          <leafValues>
            1.4207492582499981e-02 -6.2615323066711426e-01</leafValues></_>
        <_>
          <internalNodes>
            0 -1 307 -5.5157253518700600e-03</internalNodes>
          <leafValues>
            1.6431550681591034e-01 -6.3687369227409363e-02</leafValues></_>
        <_>
          <internalNodes>
            0 -1 495 2.8901357203722000e-02</internalNodes>
          <leafValues>
            -1.8319860100746155e-02 5.9959083795547485e-01</leafValues></_>
        <_>
          <internalNodes>
            0 -1 708 2.2741360589861870e-02</internalNodes>
          <leafValues>
            3.8741160184144974e-02 -3.1519618630409241e-01</leafValues></_>
        <_>
          <internalNodes>
            0 -1 339 3.7371017970144749e-03</internalNodes>
          <leafValues>
            -7.5704209506511688e-02 1.3492456078529358e-01</leafValues></_>
        <_>
          <internalNodes>
            0 -1 273 5.2983835339546204e-02</internalNodes>
          <leafValues>
            2.7045834809541702e-02 -3.8843083381652832e-01</leafValues></_>
        <_>
          <internalNodes>
            0 -1 257 2.9255114495754242e-03</internalNodes>
          <leafValues>
            3.5148132592439651e-02 -3.3068695664405823e-01</leafValues></_>
        <_>
          <internalNodes>
            0 -1 406 -9.1934790834784508e-03</internalNodes>
          <leafValues>
            1.9569766521453857e-01 -5.1800224930047989e-02</leafValues></_>
        <_>
          <internalNodes>
            0 -1 659 1.7182547599077225e-02</internalNodes>
          <leafValues>
            1.4908639714121819e-02 -6.0249543190002441e-01</leafValues></_>
        <_>
          <internalNodes>
            0 -1 138 5.3136393427848816e-02</internalNodes>
          <leafValues>
            -4.4084034860134125e-02 2.4109344184398651e-01</leafValues></_>
        <_>
          <internalNodes>
            0 -1 16 -4.0197029709815979e-02</internalNodes>
          <leafValues>
            1.5554481744766235e-01 -7.1387641131877899e-02</leafValues></_>
        <_>
          <internalNodes>
            0 -1 296 -5.3448718041181564e-02</internalNodes>
          <leafValues>
            1.6154389083385468e-01 -5.8534365147352219e-02</leafValues></_>
        <_>
          <internalNodes>
            0 -1 295 -1.6473244875669479e-02</internalNodes>
          <leafValues>
            -1.4844802021980286e-01 6.9940999150276184e-02</leafValues></_>
        <_>
          <internalNodes>
            0 -1 222 3.4942463040351868e-02</internalNodes>
          <leafValues>
            5.1455985754728317e-02 -2.3842523992061615e-01</leafValues></_>
        <_>
          <internalNodes>
            0 -1 233 -3.7043344229459763e-02</internalNodes>
          <leafValues>
            -5.2005064487457275e-01 1.5083650127053261e-02</leafValues></_>
        <_>
          <internalNodes>
            0 -1 72 1.7381090670824051e-02</internalNodes>
          <leafValues>
            -7.7091820538043976e-02 1.5206196904182434e-01</leafValues></_>
        <_>
          <internalNodes>
            0 -1 186 6.2784878537058830e-03</internalNodes>
          <leafValues>
            -7.2452537715435028e-02 1.5255251526832581e-01</leafValues></_>
        <_>
          <internalNodes>
            0 -1 78 -8.6511343717575073e-02</internalNodes>
          <leafValues>
            -4.2498064041137695e-01 2.3074712604284286e-02</leafValues></_>
        <_>
          <internalNodes>
            0 -1 91 -7.8306294744834304e-04</internalNodes>
          <leafValues>
            -1.6631333529949188e-01 6.0773987323045731e-02</leafValues></_>
        <_>
          <internalNodes>
            0 -1 13 -2.9751960188150406e-02</internalNodes>
          <leafValues>
            2.8761845827102661e-01 -3.2846763730049133e-02</leafValues></_>
        <_>
          <internalNodes>
            0 -1 39 7.7081890776753426e-04</internalNodes>
          <leafValues>
            5.5191937834024429e-02 -1.5673106908798218e-01</leafValues></_>
        <_>
          <internalNodes>
            0 -1 645 -3.6234885454177856e-02</internalNodes>
          <leafValues>
            -4.6932369470596313e-01 1.8975287675857544e-02</leafValues></_>
        <_>
          <internalNodes>
            0 -1 631 7.6110688969492912e-03</internalNodes>
          <leafValues>
            -7.1220673620700836e-02 1.3016240298748016e-01</leafValues></_>
        <_>
          <internalNodes>
            0 -1 194 -2.1952485665678978e-02</internalNodes>
          <leafValues>
            -1.8812882900238037e-01 5.1800087094306946e-02</leafValues></_>
        <_>
          <internalNodes>
            0 -1 195 1.4263710379600525e-01</internalNodes>
          <leafValues>
            1.5136210247874260e-02 -6.1419177055358887e-01</leafValues></_>
        <_>
          <internalNodes>
            0 -1 726 -1.0324709117412567e-02</internalNodes>
          <leafValues>
